<?xml version="1.0"?>
<opencv_storage>
<cascade>
  <stageType>BOOST</stageType>
  <featureType>HAAR</featureType>
  <height>30</height>
  <width>30</width>
  <stageParams>
    <boostType>GAB</boostType>
    <minHitRate>9.9500000476837158e-01</minHitRate>
    <maxFalseAlarm>5.0000000000000000e-01</maxFalseAlarm>
    <weightTrimRate>9.4999999999999996e-01</weightTrimRate>
    <maxDepth>1</maxDepth>
    <maxWeakCount>100</maxWeakCount></stageParams>
  <featureParams>
    <maxCatCount>0</maxCatCount>
    <featSize>1</featSize>
    <mode>BASIC</mode></featureParams>
  <stageNum>8</stageNum>
  <stages>
    <!-- stage 0 -->
    <_>
      <maxWeakCount>2</maxWeakCount>
      <stageThreshold>-3.2330381870269775e-01</stageThreshold>
      <weakClassifiers>
        <_>
          <internalNodes>
            0 -1 3 9.5021754503250122e-02</internalNodes>
          <leafValues>
            -9.6774190664291382e-01 8.8701158761978149e-01</leafValues></_>
        <_>
          <internalNodes>
            0 -1 12 9.9748093634843826e-03</internalNodes>
          <leafValues>
            -9.3621712923049927e-01 6.4443808794021606e-01</leafValues></_></weakClassifiers></_>
    <!-- stage 1 -->
    <_>
      <maxWeakCount>1</maxWeakCount>
      <stageThreshold>6.8717706203460693e-01</stageThreshold>
      <weakClassifiers>
        <_>
          <internalNodes>
            0 -1 5 -1.2714025564491749e-02</internalNodes>
          <leafValues>
            6.8717706203460693e-01 -9.8598951101303101e-01</leafValues></_></weakClassifiers></_>
    <!-- stage 2 -->
    <_>
      <maxWeakCount>2</maxWeakCount>
      <stageThreshold>-1.5057413280010223e-01</stageThreshold>
      <weakClassifiers>
        <_>
          <internalNodes>
            0 -1 1 4.6544326469302177e-03</internalNodes>
          <leafValues>
            -6.3008630275726318e-01 7.4695605039596558e-01</leafValues></_>
        <_>
          <internalNodes>
            0 -1 8 2.0227230561431497e-04</internalNodes>
          <leafValues>
            4.7951218485832214e-01 -9.8637378215789795e-01</leafValues></_></weakClassifiers></_>
    <!-- stage 3 -->
    <_>
      <maxWeakCount>2</maxWeakCount>
      <stageThreshold>-2.1879065036773682e-01</stageThreshold>
      <weakClassifiers>
        <_>
          <internalNodes>
            0 -1 8 -2.7356261853128672e-04</internalNodes>
          <leafValues>
            -9.6083229780197144e-01 8.9484864473342896e-01</leafValues></_>
        <_>
          <internalNodes>
            0 -1 0 6.4652287401258945e-03</internalNodes>
          <leafValues>
            -6.7006349563598633e-01 7.4204164743423462e-01</leafValues></_></weakClassifiers></_>
    <!-- stage 4 -->
    <_>
      <maxWeakCount>3</maxWeakCount>
      <stageThreshold>8.1237563863396645e-03</stageThreshold>
      <weakClassifiers>
        <_>
          <internalNodes>
            0 -1 8 -1.3448309618979692e-04</internalNodes>
          <leafValues>
            -8.5994398593902588e-01 7.6233637332916260e-01</leafValues></_>
        <_>
          <internalNodes>
            0 -1 4 4.7258973121643066e-02</internalNodes>
          <leafValues>
            -9.0392053127288818e-01 4.9755737185478210e-01</leafValues></_>
        <_>
          <internalNodes>
            0 -1 7 3.3173011615872383e-04</internalNodes>
          <leafValues>
            3.7051036953926086e-01 -9.4724237918853760e-01</leafValues></_></weakClassifiers></_>
    <!-- stage 5 -->
    <_>
      <maxWeakCount>1</maxWeakCount>
      <stageThreshold>6.8067228794097900e-01</stageThreshold>
      <weakClassifiers>
        <_>
          <internalNodes>
            0 -1 7 -3.0212796991690993e-04</internalNodes>
          <leafValues>
            -1. 6.8067228794097900e-01</leafValues></_></weakClassifiers></_>
    <!-- stage 6 -->
    <_>
      <maxWeakCount>3</maxWeakCount>
      <stageThreshold>9.1095544397830963e-02</stageThreshold>
      <weakClassifiers>
        <_>
          <internalNodes>
            0 -1 9 2.0678203145507723e-04</internalNodes>
          <leafValues>
            7.0863485336303711e-01 -9.0749603509902954e-01</leafValues></_>
        <_>
          <internalNodes>
            0 -1 13 -5.0932560116052628e-03</internalNodes>
          <leafValues>
            5.3844732046127319e-01 -7.7616387605667114e-01</leafValues></_>
        <_>
          <internalNodes>
            0 -1 2 4.7781504690647125e-03</internalNodes>
          <leafValues>
            -7.6751595735549927e-01 4.6014422178268433e-01</leafValues></_></weakClassifiers></_>
    <!-- stage 7 -->
    <_>
      <maxWeakCount>3</maxWeakCount>
      <stageThreshold>-7.9731899499893188e-01</stageThreshold>
      <weakClassifiers>
        <_>
          <internalNodes>
            0 -1 10 -1.5228039119392633e-03</internalNodes>
          <leafValues>
            -9.6078431606292725e-01 6.3470321893692017e-01</leafValues></_>
        <_>
          <internalNodes>
            0 -1 6 -3.3879990223795176e-04</internalNodes>
          <leafValues>
            -9.2721635103225708e-01 4.1089496016502380e-01</leafValues></_>
        <_>
          <internalNodes>
            0 -1 11 -1.0953473392874002e-03</internalNodes>
          <leafValues>
            6.9431519508361816e-01 -5.0480586290359497e-01</leafValues></_></weakClassifiers></_></stages>
  <features>
    <_>
      <rects>
        <_>
          4 11 6 8 -1.</_>
        <_>
          6 11 2 8 3.</_></rects>
      <tilted>0</tilted></_>
    <_>
      <rects>
        <_>
          4 12 6 7 -1.</_>
        <_>
          6 12 2 7 3.</_></rects>
      <tilted>0</tilted></_>
    <_>
      <rects>
        <_>
          5 12 6 8 -1.</_>
        <_>
          7 12 2 8 3.</_></rects>
      <tilted>0</tilted></_>
    <_>
      <rects>
        <_>
          6 6 17 18 -1.</_>
        <_>
          6 12 17 6 3.</_></rects>
      <tilted>0</tilted></_>
    <_>
      <rects>
        <_>
          11 4 10 14 -1.</_>
        <_>
          11 11 10 7 2.</_></rects>
      <tilted>0</tilted></_>
    <_>
      <rects>
        <_>
          11 14 7 8 -1.</_>
        <_>
          11 18 7 4 2.</_></rects>
      <tilted>0</tilted></_>
    <_>
      <rects>
        <_>
          11 22 12 2 -1.</_>
        <_>
          15 22 4 2 3.</_></rects>
      <tilted>0</tilted></_>
    <_>
      <rects>
        <_>
          12 6 5 4 -1.</_>
        <_>
          12 8 5 2 2.</_></rects>
      <tilted>0</tilted></_>
    <_>
      <rects>
        <_>
          12 22 8 2 -1.</_>
        <_>
          16 22 4 2 2.</_></rects>
      <tilted>0</tilted></_>
    <_>
      <rects>
        <_>
          13 6 5 4 -1.</_>
        <_>
          13 8 5 2 2.</_></rects>
      <tilted>0</tilted></_>
    <_>
      <rects>
        <_>
          13 10 8 14 -1.</_>
        <_>
          17 10 4 14 2.</_></rects>
      <tilted>0</tilted></_>
    <_>
      <rects>
        <_>
          13 15 3 1 -1.</_>
        <_>
          14 15 1 1 3.</_></rects>
      <tilted>0</tilted></_>
    <_>
      <rects>
        <_>
          15 7 4 10 -1.</_>
        <_>
          15 12 4 5 2.</_></rects>
      <tilted>0</tilted></_>
    <_>
      <rects>
        <_>
          21 14 6 6 -1.</_>
        <_>
          24 14 3 6 2.</_></rects>
      <tilted>0</tilted></_></features></cascade>
</opencv_storage>
